7.245943130171859092e-01 -1.858848954209544768e+00
-6.718080270435873302e-01 2.399682320022242799e+00
-1.518554409798337224e+00 -2.177190833687136784e-01
7.554975085489871178e-01 2.506514639172310321e+00
-1.447158142189451269e+00 1.500278165781723239e+00
9.460809761009921770e-01 -9.977422034077625401e-01
-3.918842624798363206e-01 -6.038861317600224821e-01
-2.717171033004801117e+00 1.250568662346749627e-01
8.472192046234636731e-01 2.611341944915232194e+00
-2.063331361099801087e-01 -1.491668048648238099e+00
6.686635958374814726e-01 2.785667626780207407e+00
5.543435006342043447e-01 -1.001687530107562285e+00
1.593693097382560930e+00 -5.136799895424346563e-01
4.288846974994033889e-01 3.094619936550069839e-01
-3.865573887785104801e-01 -8.532706336624348853e-02
2.629863384492656664e+00 -5.397450436563612231e-01
-8.157031563462759927e-01 -3.622289322576737192e+00
-3.326141998608397987e+00 7.368460371343419357e-01
-9.999396640390991742e-01 -7.059294934018304213e-01
-3.521162415448219618e-01 -8.349290174748286164e-01
1.344950995141203087e+00 -5.707407470893603035e-02
-5.045017800904840755e-01 4.129198665754718611e-01
-1.237029407406478709e+00 -2.132906468537337119e+00
-2.257426105239386249e+00 -6.959253612016199630e-01
4.945195989069480214e-01 4.241411173610734053e-01
-3.026339328954366970e+00 -1.684122294694967215e+00
-2.333957761165856404e+00 1.571992664938942186e+00
9.768831288806449908e-01 -1.165470415128094128e+00
-6.821116043830126596e-01 -2.845342222878255098e-02
5.201971284379082461e-02 3.980176818494900903e+00
-1.550808905547389482e-01 -4.537423161392091231e+00
-1.767379774574856954e+00 -1.833170669700395550e+00
