1.407250618006133713e+00 -2.353066275604735580e+00 1.178863241740032430e+00 -8.580944281767017845e-01 -6.836613350041881310e-01 9.149372144606867652e-01 -1.102401124616026573e+00 2.544315118007860033e+00 2.384158931969311279e+00 -2.128206083802406390e+00 -1.458899641239500555e+00 -1.001796121071643508e+00 2.167790669186379304e+00 -1.649793175810930546e+00 -1.838798561007392474e+00 1.214088713032746569e-01 -1.932824811573821355e+00 3.647480556041635125e-02 -2.334783356099227714e+00 -1.141064279554384608e+00 1.316641930408396721e+00 9.832614830411973150e-02 -1.698901443905540765e+00 -2.801969814989188068e-01 2.240716394061101902e+00 -1.723194173997649514e+00 -3.739642628572172889e+00 -1.453735078076370923e+00 -1.376317688158154029e+00 -1.470624413546600451e+00 1.860940254133359506e+00 -4.782068792170227067e-01
2.892899442638308463e-02 6.632445411393927959e-01 -3.439397690965459109e+00 6.455254092398312604e-01 6.963548482446695331e-01 1.772586038944458320e+00 1.349497281047528086e+00 -3.759066595605156658e-01 -1.282134146158176113e+00 -5.131136382397984974e-01 -5.070146905470933607e-01 1.369252610677537563e+00 -7.977156120633416281e-01 -1.821589946487146561e+00 7.449936104387516744e-01 -1.141291993467928867e+00 1.756532840625296910e+00 -6.314960781270818890e-02 1.226615125330172251e+00 2.990542176706585398e+00 -3.173268883277674535e-01 1.175165161618253906e+00 6.113196652501932116e-01 6.006657692928609737e-01 1.523448235043570298e+00 2.344096126534992663e+00 -2.264621643785761362e-01 -1.649505782110320062e+00 -1.955985981270177643e+00 9.495986222479738115e-02 3.346515106255097294e+00 -2.136595938133817596e-01
-1.380636859681742434e+00 -5.585331790421386167e-01 8.163040106467323032e-01 3.963364334194898198e-01 7.490164184419637605e-01 4.054428417579971078e-01 -7.298251701835882788e-01 -1.176321644304534120e+00 1.590829393517351864e+00 -8.377019149968337741e-01 -4.371261874252526880e+00 9.508331034133347126e-01 3.067807481903361833e+00 -2.409799702467199101e+00 1.696297786397980456e+00 1.947478619814136058e+00 1.021173666154381765e+00 8.510296314709749899e-01 2.901881354572169447e-01 -6.311574512740993903e-01 -9.456093269002097124e-01 -1.056308667818181668e+00 -2.823824994178794970e-02 2.787821404753667132e+00 2.231758326590201236e+00 -1.214764227866770963e+00 -2.649913933396523369e+00 8.504946332300317158e-01 -6.168249615770573513e-01 6.147777309488205999e-01 -4.721509355586337442e-01 9.640521470038986296e-01
-1.126665678049305175e+00 -1.966945343429121751e+00 -1.956561535874218882e-01 5.140496546704511616e+00 -7.369288601092436330e-01 1.827158664496032925e+00 -3.483194143748884475e+00 -8.991476895811293391e-01 1.102087131248827290e-01 -1.287090045733431998e+00 6.779584198502429659e-01 -1.388988878049873366e+00 -8.639778307327286022e-01 8.188257811044020729e-01 3.358927949814690672e-01 -2.728823842081775086e-01 -6.248034844085971207e-01 3.735900269733667955e-01 2.127486108340219229e+00 9.471391718000005816e-03 -6.938445855843571319e-01 -3.729867389776777009e-01 -1.129744986384697558e+00 1.449533421310663206e+00 -8.415419330561900724e-01 -1.903545697436267670e+00 2.791574925733575352e-01 -2.770167807221374234e-01 1.116340322141385899e+00 1.909901315677409617e+00 6.904649424983524408e-01 -3.660799104327513986e-01
