-1.730544942168253941e+00 2.330919803465349105e+00 1.792162924704844951e+00 9.885046561505357321e-01 -7.674204528285764049e-01 1.054542801120903484e+00 -2.645828659286223683e+00 -4.575057241372432193e-02 6.858074273715215607e-01 8.857074501332234950e-01 6.006840651778593276e-01 4.283722827201247085e+00 -1.402230286799304393e+00 1.946493183102259716e-01 4.636692032887801851e+00 1.244647506213369947e+00 9.922691916134410706e-01 -5.978002804003899051e-01 2.857298277294986644e+00 3.172150689460771833e+00 -1.163159442329088744e+00 -2.495164913141799001e+00 -8.284010161724322252e-01 -4.993483141020555460e-01 -5.557878079491139767e-01 -1.833503843909844333e+00 1.227993353342557326e+00 -5.355607212655288940e-01 -2.084929906373452768e-01 1.296989675433036560e+00 -2.396321255265603245e+00 1.626169116914933488e+00
-5.341782201271830233e-02 2.426924353022995584e-01 8.022730681494093241e-02 -1.489943036481232497e+00 -1.280217462763002523e+00 -1.125906800072955294e+00 -1.769344001703840430e+00 1.370575074018414163e-01 -1.246567132817922419e+00 -2.050673558125283014e-01 6.032835499603881324e-01 2.720125740712334039e+00 2.220458907318049402e+00 1.561054748795928759e+00 3.137075820399328308e+00 -1.436609331672209278e+00 -2.835004785039509922e+00 -3.172389380314152962e+00 1.141652475513659670e+00 -2.186618887449179649e+00 -6.050307120511569936e-01 -9.720054785189577995e-01 -2.853118076034233841e+00 4.728426985641797309e+00 -1.858990273812580196e-01 -1.330782939297309397e+00 3.026217309640670816e-01 -1.092368350108789077e+00 1.877174234253639051e+00 9.924071597360881736e-01 -1.532556489294602420e+00 -7.992389237267643054e-01
5.402878906454479102e-01 -4.094574214887368058e+00 1.686760680518519517e-01 9.895363758717941050e-01 -1.451756854052185242e+00 5.481032462010806405e-01 1.440682085142895863e-01 -1.677027464604647633e-01 -2.508841598986334631e+00 1.334831813798184053e+00 -6.787538320873249820e-01 -3.176321161793658643e+00 -2.011920737612244103e+00 2.206755283656979927e+00 -7.502098395873121883e-02 3.297050860726903565e+00 8.071813027055951828e-01 -7.749493553060144979e-01 9.343706824430937363e-01 6.758696132703478909e-01 2.845180588377421160e-01 6.178437685247211153e-01 -6.529383197173377340e-01 -4.800022991414641282e+00 -1.676205183092096984e+00 -1.417715960732077729e+00 1.304836807517010255e+00 -4.711504359247536300e+00 -1.292037082531328540e+00 -4.179354061733253189e+00 1.727620168885678043e+00 -1.624079259628408822e+00
2.625565086986833663e+00 -1.541400631264970844e+00 -8.583628472188793435e-01 1.511665991662313413e+00 -2.353872211559169703e+00 1.128670553957923789e-01 -4.099831332825915609e-01 -3.662044001201281845e-02 1.679482224151812142e+00 7.362261603482125327e-01 5.249025920910522780e-01 5.997640846963939731e-01 1.496457521521227019e+00 -9.767401547268619311e-01 -2.283928381127209306e+00 -5.855253371037317578e+00 2.183933674630882393e+00 -1.991147582496545498e-01 2.991675607295238293e-01 -1.657592720227746286e-01 1.305538081014384344e-01 2.718135656238093834e+00 -2.335144124730081927e+00 2.841451677563781253e+00 -3.763476912838864763e+00 9.126344194694214762e-01 2.106267788469595448e-01 2.145953325103520992e+00 1.015292292699434995e+00 6.849964468139867257e+00 4.463381787680092749e+00 -1.077538747864661417e+00
-1.949599723880163227e+00 1.565633404584323651e+00 4.650457767384805208e-01 -2.787580746387938180e-01 -2.290713602893737821e+00 -2.579701816873652409e-01 -8.557267156624718263e-01 -1.304456390556609335e+00 2.243765630866658700e-01 -1.289841406027072646e+00 -2.218087051190743564e-01 -1.698332982748666842e+00 1.808416437523498788e+00 -4.745473189664203145e-02 1.773077286103446060e+00 2.843821395421317066e-01 1.736249463686258876e+00 6.104781571655422123e-01 -1.696768420339582750e-01 8.803365466310345555e-01 -2.438352664282277260e+00 1.842651987139685588e+00 -8.347180263176382509e-01 -7.693565399359888479e-01 -3.900736604474284164e-01 4.755799396951238656e+00 -2.668736869443684087e-02 -1.935754404204472090e+00 -1.122529660683911468e+00 -2.182946578729995757e+00 -1.159192293056349049e-01 6.975948132008362446e-02
-3.726989028820469896e-01 -2.444832311463788876e+00 -4.294252409267579118e+00 5.780761385524970514e-02 9.102555911179525117e-01 -8.602697768034192061e-01 4.029643465977651218e+00 4.858122899974380293e-01 -9.709183592941231788e-01 -6.132055108575259483e-01 -6.422172431574615925e-02 5.801520249679601449e-01 -2.386858264440421262e+00 1.078250918919684498e+00 3.808083404453955212e-01 3.923173614153701028e-01 -1.609970227064365211e+00 2.581855601321564553e+00 -9.856487018210324802e-01 2.084413838426438126e+00 1.576462802186518575e+00 -1.725713773715783494e-01 1.491750362232100668e+00 1.137282360223700772e+00 -2.832698976964008464e-02 4.580256248146090670e+00 -1.138955342258195724e+00 3.357037641017995622e+00 1.637139234588346648e+00 2.564144875676362956e-01 8.108856786161078301e-02 6.030133742491770033e-01
-5.352037745894775433e+00 -3.269699358178516757e+00 1.137070263928491531e+00 -1.510853759571330057e-01 9.832957811718779917e-01 -3.073291481999401720e-01 2.773034058684820113e-01 -5.598916189175638936e-01 9.797028230927141701e-01 2.922085098888400623e+00 4.136230244529321531e+00 -3.201325063312951413e-01 -8.382693739979800718e-01 3.872669927304476012e+00 -8.641710778328282050e-01 -2.337213964242137010e+00 1.884417247748015889e-01 9.586936604137274998e-01 -3.108289101247322939e-01 3.554458487779135201e-01 3.111512435746116578e-01 -9.617173848271544090e-01 6.058344713150754651e-02 2.320267834449175393e+00 2.659112531898151666e+00 1.259204132265761278e-01 2.864559234581330882e-01 -9.258665668646296476e-01 -3.824974619204088100e+00 -2.303507021321073100e+00 1.438629573610568091e+00 -9.515291734603228413e-01
3.131830320654592548e+00 4.479679518416367356e-01 2.358959610602288579e-02 -3.092229690058099223e+00 2.736532223028688815e+00 2.454762599141294410e-01 -1.138663895089447209e+00 1.339072620626910570e+00 1.992563699000943434e+00 -7.177197290457396628e-01 -9.830216490980808741e-01 3.971163929164917006e-01 -2.656002575301052548e+00 2.133522573239936548e-01 1.641299499400426853e+00 -1.071876956554910221e+00 -6.482719785629933895e+00 -7.494874113763395906e-02 1.705683027558609677e+00 -1.944124150633039783e-01 -2.534595500842638849e+00 -5.205842724423310752e-01 -6.645809970360465613e-01 -7.126858848384933776e-01 7.631226768143642980e-01 -7.136929959671868273e-01 3.041357968956429847e+00 -4.695728607322482984e-01 2.010866645290156018e+00 1.754019841861585327e+00 2.121984703556061724e+00 3.092258582224398200e+00
8.406549977081254621e-01 2.109420911816780320e-01 -1.091530125771146720e+00 -3.235552294850536192e+00 -1.597660478717601196e+00 -1.613091314387230524e+00 1.678419511960768551e+00 -2.034977010471615000e-01 -1.347116710386882188e+00 -9.296615164171767587e-01 -2.139074425154000314e-01 3.220588908265533234e+00 -1.481672833065992068e+00 5.242404345003561783e-01 1.055707708920315291e+00 -2.188796574120724092e-01 -1.701729341022037323e+00 -3.341347665267745626e+00 1.385943448855689208e+00 -5.036743427177506227e+00 -4.442588081978239845e-01 1.206761483015137637e+00 -3.945332522408820375e-01 3.633067064007922564e+00 -1.769012113679721443e+00 1.180712320403894511e+00 3.936025196911312918e+00 -9.960442643128347706e-01 -8.870926747653594679e-01 1.673131944356220480e+00 6.260142733655037484e-01 -5.811645010120742860e+00
-4.167585829954766341e-01 1.261671232575596768e+00 -1.753771815574555859e+00 7.578372877434161881e-01 -1.924490320494036011e+00 -7.506492736995645787e-01 1.100138833761895168e-01 -2.312258858889494118e+00 7.983645157967876882e-01 3.004438008137114147e-01 2.796389538768101257e+00 2.318225564542976402e-01 1.408792041459856925e+00 1.026119660925242094e+00 -3.887943687999148024e-01 -1.809022796227299335e+00 -3.077172273333717706e-02 -3.930009107913555955e+00 -4.479788962166768029e-01 1.831384986381428215e+00 -1.708490082684581468e+00 4.359964497090038638e-01 3.801654313113699502e+00 -2.001540873450054381e+00 -1.857089723906753809e-01 8.271348095053685512e-01 7.977176165138718522e-01 -2.379596726233415893e+00 1.251271428889320914e-01 -2.934406421720887170e+00 -3.987567255280351386e+00 3.162155095219548961e+00
1.356983598559189375e+00 7.531389393267836629e-01 6.499424197822448734e-01 -5.323018140622572947e-01 4.052508800733211070e-01 -9.333569749158935336e-01 2.955350872640298387e+00 -1.687159163160306008e+00 6.842576200917481755e-01 -1.605298336296529405e+00 -3.169979144298095797e+00 -1.607750815014065138e+00 -3.169877426792760411e-01 1.055761831635616765e+00 -3.265095428567154290e+00 1.611287650297814067e-01 1.398586183167775499e+00 7.517954351534946733e-01 2.026541787790467619e-01 3.636639915760271347e+00 -6.197324630076017637e-01 5.261212229837819443e-01 -2.081923706094854221e-01 -5.917395661644777594e-01 -2.033751736890798245e+00 -1.079004412581823669e+00 2.255851959888694580e+00 -2.034520859839497486e+00 -1.119005720975337237e+00 -2.640165045294445845e-01 3.173299373880845931e+00 3.710878208706717141e-01
2.519948251781816695e-01 2.616696903535464802e-01 1.250210906939346778e+00 2.125855728147553414e+00 -1.627405962328953182e+00 -3.274470824805220115e+00 1.905300694430696273e+00 -2.663035693180180186e+00 -2.230680441544666159e+00 2.234453546689167958e+00 1.348333115158206308e+00 -1.784402747088900787e+00 -4.108886830726766526e+00 -1.939132431885319252e-01 2.437641012319483824e+00 2.026194045786857689e+00 -1.731887581525064279e+00 -4.549650198465854944e-01 -7.584654468078898260e-03 1.494649759264735422e+00 -7.021484116934519903e-01 1.544505497539607752e+00 4.268766857681844384e-01 5.459804763355546875e-01 -2.514051768508856366e+00 1.041321987809265215e+00 1.427313727455768566e+00 5.558865711444405111e-01 -4.202208161395771385e-02 3.915582120251932530e-01 2.117042855196577644e+00 2.577146174037560744e+00
-1.168294304284406504e+00 8.586255862291600760e-01 1.346692645425809243e+00 -1.278958623207453238e+00 -2.792323715573489462e+00 3.849257857726315013e+00 1.323353345650853941e+00 -6.599028220677214396e-01 -6.412016351924963997e-01 -4.429156439852853566e+00 1.581099283250220644e+00 6.142316824374209894e-01 -4.976405751238736741e+00 1.581972137166600401e-01 -7.882713732641183357e-02 -1.529305642947051513e+00 3.000132413599403414e-01 -2.798184729975620400e+00 5.502512988132872707e-01 3.542024183047225883e+00 -6.713132028080897040e-01 3.386830003059552396e+00 7.328547110148242449e-01 -1.872250993387875040e-01 -1.901175603745202780e+00 -1.186946564723583508e+00 -1.522509738097169718e+00 5.429502821934065748e-01 -2.836971231543508609e-01 -3.913674190158022426e-01 2.235639704057168053e+00 4.247141042521759280e-01
-1.413879135642480689e+00 -1.474182872886220741e+00 -7.053332096387576300e+00 -2.922202940786746694e+00 -2.652561028506049468e+00 -1.706478216362000977e-01 1.931302949348408626e+00 -5.439505851585360041e-01 -2.122844621073363580e+00 -3.257443351754126581e+00 8.325929758901624567e-01 -6.926250745023901922e-01 -6.303851228377637561e+00 -1.554025663539423396e+00 -7.302002352418704989e-01 6.038715920113587460e-02 -9.628786204648712710e-01 -5.033375582876477017e-01 -1.477726895427762477e+00 -2.611284505937712552e+00 -1.894360227465638147e+00 -3.451114584007383357e+00 7.392707691444445395e+00 -1.170176144925791695e+00 1.683765023087281820e+00 -1.025379650684326155e-01 -2.540883187851463720e+00 -3.884745641230520796e+00 -5.684644363509261389e-01 -1.011660557284869588e+00 3.573836028859266878e-01 -1.274276243321051272e+00
6.166369805426700212e-01 6.792267482176602700e-01 1.594441371378122696e+00 -2.832481916491023100e+00 -4.721752479194331720e+00 -4.661494415887511011e-01 -2.898658825744558243e+00 -2.553781233900223047e+00 -4.506678490286352812e+00 6.700262592718960741e-01 1.488617060445460050e+00 1.646723179165845430e+00 -9.947276451055093727e-01 1.461947090499411184e+00 -7.432964177740668532e-01 2.403240500369017152e+00 -3.522635553409045883e-01 1.903482816439581171e+00 1.675518780839347910e+00 -4.875746110235713165e-02 9.489706963559441100e-01 -5.129460464463142522e-01 8.970903457729665353e-01 -6.371715777493550670e-01 9.171793889505137909e-02 -5.334457389377488257e-01 2.716595289324124640e-01 1.315981287555478607e+00 -1.825585233215916370e+00 5.185208190657958349e-01 3.385481863474548714e-01 -1.521246390564602868e-01
-2.868342808377351005e-01 8.491213844464332583e-01 -1.276204988505973137e-01 -4.293493653899801976e-01 1.757823348102184324e+00 7.901842970043815306e-01 -9.096068949521444180e-01 1.844668293276785720e+00 1.416151872204968187e+00 -4.170283843088814363e-02 6.455660086263349529e-01 -5.708497387725167904e+00 -2.337985927167328448e+00 -3.510463964927984293e+00 -1.178299580524704293e+00 6.190873457350704046e-01 -1.048584338741907818e+00 -6.943927094638997488e-01 -3.179236700663505388e+00 -4.104852113814199122e+00 3.726001909676257551e+00 -2.867968224642852282e-01 9.437182563671253632e-01 5.738606730992691363e-01 2.184041293337513068e+00 3.773144525901239277e+00 6.639495752419598551e-01 3.526617107176421850e+00 -1.193226164932448041e+00 9.414086513576961357e-01 -1.172997947349233155e-01 6.400893811637435593e-02
1.226713968467821658e+00 -2.909102115266900768e+00 1.241435954331250417e-02 -1.176682760644611525e+00 2.807115514352357538e-02 1.707301780728299745e-01 2.186671223706131983e-01 2.687861968550052105e-01 -2.659238233856942579e-01 8.079523366794910677e-01 8.655025567580008072e-01 -1.366213465768870261e+00 -8.611019500926057058e-01 2.283888817467923660e-01 -2.033916571801072326e+00 2.641802751622450707e+00 2.170151789323846891e+00 7.980259553705153497e-01 1.114764035996753666e+00 -3.039792393811449056e+00 1.436072814594809288e-01 2.276791964564732762e-01 7.485037290386441500e-01 -6.785430174306396056e-01 -1.921033891049422904e+00 -1.005539702488075893e+00 2.043281185468231786e+00 -2.662648926549218587e+00 8.145545605966149072e-01 2.049495971082592849e+00 1.242445348554195583e-01 4.301127323832942273e-01
-1.227556922022603469e-01 -1.653103041992220801e+00 -1.995736059253361727e+00 7.370968017936382725e-03 -3.401737587695763843e+00 2.477485451637489344e+00 7.307455245814826750e-01 -3.907230018796897575e+00 -1.470517634946575614e+00 3.284022431121555119e+00 -9.943598124469791300e-01 -1.345288438256466712e+00 1.746620098767742713e-01 -1.696278218605449473e+00 -4.726627065636467284e-01 2.698601426805952719e-01 4.201471510340656579e+00 -4.299470626018581654e-01 -3.736613461634425537e+00 -1.725586691035410625e-02 3.105081506059613750e-01 -1.306485169474488783e+00 -1.337729692547784122e-01 -1.209201052743839044e+00 -5.651516542985929314e-01 2.406067372775740343e-01 1.258842930820625927e+00 1.544343104679445799e+00 -3.533372915645993650e-01 3.047645393900130451e+00 -1.289645186854802894e+00 -1.694966923593055563e+00
3.640588118889661828e+00 -2.575294204648410634e+00 8.925474036847518278e-01 6.225453312262424488e-01 -2.226509448396172708e+00 8.185047505227788234e-01 2.834065097349972806e+00 -3.778754305470461095e+00 -7.962943439781074995e-01 -4.030061533613651381e-01 -2.054766881380263310e+00 7.217021286602043340e-01 2.669647090922380173e+00 2.272661741064156082e+00 -3.882624493851268704e-02 -8.217075798481165982e-01 9.420148060534118128e-01 -4.334714710246797553e-01 -8.318479645240635101e-01 -4.611452541239537406e-01 1.240858689626638478e+00 -1.308921708420598184e+00 3.552420275049710252e+00 -1.585696725896943882e+00 -8.551072616630247536e-01 -3.187192227175317694e+00 -4.412354920672254543e-01 1.196534372810508673e+00 -1.602126646649747688e+00 1.509247725159804210e+00 -1.189143366775053501e+00 5.945881520207714210e-01
1.820208281315113030e+00 2.547830558837600012e+00 1.530986271962074374e+00 -7.145216422673070777e-01 -7.459221396940501903e-01 -4.654499026675935625e+00 -6.073254784802879502e-01 -2.345118275238246675e+00 -1.633225702171762883e+00 -1.111939895338607487e+00 -2.168129970939568218e-02 1.617018707671601829e+00 1.770077466381514864e+00 1.810993482699130519e+00 3.605690767219958293e+00 1.187135796338421478e+00 2.890934729078419085e+00 -3.423093838878751849e-01 -1.503609170696234898e+00 5.244684773478092144e-01 -3.172336618910906125e+00 1.222153520555858242e+00 -8.451369590879130866e-01 2.444340734758197464e-01 -5.051994015048836495e+00 -1.504224339225671336e+00 -1.783592574690619381e+00 1.626705146714920946e+00 8.669012250425561783e-01 -2.138825445904104783e-01 2.975702063054068147e-01 3.025080284290048160e-01
-5.764870412745943806e-01 -1.197569415232443646e+00 -7.072358829781053569e-01 -8.110271039001256677e-01 1.197735753744778586e+00 2.323034012548811145e+00 3.980186169869797119e+00 1.953992659076571492e+00 2.770895206318181314e-01 3.523795020168865033e+00 1.812069556145821547e+00 1.251527942181854258e-01 -2.903988841578285296e+00 -1.848596248356939364e+00 7.335011687383261592e-01 -8.090285733760788078e-01 -6.134964598549665915e-01 3.818882814035879369e-01 9.881772115514413368e-01 1.716678264055752967e+00 -5.780065973372018329e-01 -2.353086158050159860e+00 1.597234400869875115e+00 -1.024949775076352543e+00 -8.597601320242244105e-01 -1.340990973068260095e+00 -1.807146556170535767e-01 -1.208912915458036696e+00 -2.745368947214510413e+00 -1.341372912245395677e+00 2.516612861593758299e-01 -3.717275072772224243e-01
1.736670122197874422e+00 -6.859422508738457491e-01 7.460663731372670915e-01 7.275424401881263048e-01 3.944955865214025970e+00 1.664239836130801953e+00 2.392399706730113706e+00 -4.378880988259864715e+00 5.358023696296544180e+00 3.295917067321768035e-01 1.011749110566291104e-01 -1.809433684169623024e+00 5.260834753865726438e-02 2.528064998292400833e+00 1.244809285838176738e+00 7.990553330884475614e-01 2.263203224287001714e+00 1.737985338611548025e+00 6.160402601288174074e-01 -1.191153224717909520e+00 6.096774161840492479e-01 1.159936635497064161e+00 2.349833218268837509e+00 4.371639336621779282e-01 -1.812307363711437302e+00 4.615448773165965468e-01 -9.323852908888506930e-01 -1.573577869037958710e-01 -2.203415214187821380e+00 -1.255855247031354649e+00 2.120842411746177991e-01 -1.315618707310862501e+00
-1.216433682637258762e-01 3.963657478679519230e-02 1.519082140810418258e+00 4.181425181316733131e+00 -1.660488879892947578e+00 -7.476889985460152266e-01 -8.997287306453388700e-01 -2.822282222860615697e+00 -9.075028909091079621e-01 1.335750444053687980e-01 -1.370802722294605758e+00 -2.543111119959521726e-03 -4.137487663860289211e-01 -1.937655547830225311e+00 -7.726463749380596546e-01 -1.112766403220955436e+00 1.658574919789337132e+00 2.834577312836286112e+00 3.343739511471017223e-01 -3.217656164214552916e-01 4.152509084067015355e-01 -2.446262916839010426e+00 9.120768339282876724e-02 2.519574610166997797e+00 1.640882927087820908e+00 -8.213848392600381354e-01 -9.604371512316315362e-01 1.756469628097582503e-01 9.517464142930631699e-02 2.277049018971066374e+00 -1.083266764753507472e+00 2.760393934180121356e+00
-1.167998500080601021e+00 -5.946059117285074080e-01 -2.847262644669788401e+00 -7.877283922430341478e-01 2.178847565050675339e+00 -1.972517526113120256e+00 7.209223697963048627e-01 -2.227834185301835301e+00 -3.475664273506702706e+00 -2.093670559103231188e+00 -3.153482143964815854e-01 -2.583729732600482887e+00 1.438049838868601382e+00 3.856374255862926148e+00 -5.754469719865441535e-01 1.861645226319714963e+00 -3.506484642954497133e-01 8.706846966350740846e-01 5.518592019485948352e-01 -2.264239273007124242e-01 -9.556246453967582877e-01 -1.245660957927527068e+00 -2.223145070179031180e+00 -1.018787388771952740e+00 -6.220741700612875125e-01 -7.132633646653336879e-01 1.756275852834979556e+00 1.355073300851310281e+00 1.207002857155371478e+00 -5.364234544781032454e-02 -2.033070393637825379e+00 -1.886163823500182080e-01
1.175378097274338840e+00 2.024279071027846044e-01 -1.355896658401073984e-01 4.502200301831948082e+00 -1.333440251011400957e+00 1.279327845257173246e+00 -1.329949433462940478e+00 4.522147825699703860e-01 -5.742499592615261106e-01 -1.400694522094819039e+00 -1.486453377701761891e+00 -7.220536260176445564e-01 -1.683608468361717625e+00 2.708111949705601429e+00 -1.586569951096579389e+00 4.285759501143117101e-01 2.402037301464606145e+00 -1.199777402922879155e+00 -1.607093638793795076e+00 2.965735564720382023e-01 3.779971971545291076e+00 -1.689956109675365470e+00 -1.135445672016292873e+00 -8.676119904982569908e-01 1.768018658971205470e+00 4.630366491212271285e+00 6.125302533626637569e+00 -1.310997709367276887e+00 1.034184651705619240e+00 1.374797078557607355e+00 1.564250783976532944e+00 -1.436834005055244168e+00
7.333233363985135478e-01 -1.715214095750950518e+00 4.469283585980279860e-01 2.295259576329413687e-01 -1.579342607227509188e+00 3.696665678233223673e+00 -1.560128664526011510e+00 -1.548550302219726893e+00 -1.327436300756605680e+00 5.390386482329402318e-01 9.778001016568601544e-01 -2.320887589063035605e+00 -4.905476826667708679e+00 4.171955850293747048e-01 1.862156649407401110e+00 -1.395836687026425604e+00 -1.954939607904866650e+00 -1.927281005930446600e+00 2.480163405605665172e+00 3.499432826104485472e-01 1.276110452489125802e+00 -2.630349004517849171e-02 8.897520576807330661e-01 -5.861658469537126548e-01 7.439784049010890188e-01 -2.997485045646903323e+00 -2.439921687433877384e+00 2.742816701207207775e+00 1.069687862309961934e+00 2.837887879779394495e+00 -1.835733737520923281e+00 -9.017923660655942086e-01
-1.180073619369493176e+00 -1.334484291968819125e+00 1.468485443397573142e+00 2.187819496595485025e-01 -2.258162535349931055e+00 -4.551933750540247958e-01 1.877005345579523810e-01 -1.644292874864762277e+00 1.331848109458652285e+00 1.743526295765287726e+00 -8.251115102107459132e-01 -9.228245828166230513e-01 -1.628783680960782521e-01 -1.641350897713251156e+00 7.087710870076207037e-01 2.568187345949529021e+00 -2.230941605740411671e+00 3.977329893846614173e+00 1.165957957471370696e-02 -1.351342012562543493e+00 -1.105333132508508509e+00 -3.318194010482419243e-01 2.632013353732435057e+00 9.541043708726846262e-01 -2.392411288856539642e+00 3.998494452570207525e+00 -2.742478065732952830e-01 -2.795344717410966351e-01 -3.027137037781494122e+00 -4.520434280685373674e-01 -2.310325903719205431e+00 1.163082992744185029e+00
-3.695648381957517881e+00 3.593747510235187459e+00 -1.093397651955687194e-01 6.043603150940382029e-01 7.572561405877771268e-01 -2.079978727522879822e+00 1.776919250263194527e+00 1.632486405776146787e+00 1.142049351156573467e+00 -3.022741738052338256e+00 8.302674218062173761e-01 -2.700653476125738361e-01 2.034111046931410094e+00 2.386987371240192335e+00 9.291254847583162446e-01 -2.581029588734977231e+00 -1.766895245145433835e+00 6.528247616661922992e-01 -2.294554733117773360e+00 5.706855112432315247e-01 -5.535031910994141907e-02 -6.579438665581457402e-01 5.922402547907027470e-01 -4.996768107215003307e-01 -8.658841661545751967e-02 -2.324832995453621542e+00 1.197496019011227153e+00 -4.669339810134155444e-01 9.795165753722329116e-01 2.628386362419347755e+00 2.951282665208520672e+00 -1.862930468095091774e+00
1.978041115247743287e+00 -4.015015677094472046e+00 -1.801011541802579830e+00 -3.775724320458634931e-01 2.722444384116042393e+00 -4.022790008269083728e+00 -2.543346302396733094e+00 -7.159472529258024964e-02 -5.733672019935172059e-01 3.152230820761337537e-01 -5.458491706560864021e-01 3.495401088275612578e-01 1.715901981739972104e+00 -2.623414361867657529e+00 -9.132074864546630977e-01 -9.180767545598251811e-01 1.812448691051530766e-02 9.395646204815354396e-01 3.622799485762799865e-01 7.760377744392423782e-01 3.169478811543223973e+00 -1.578344349609379860e+00 -1.090884048676421081e+00 -6.274532545429629682e-01 4.567788364522620270e-01 3.226082503227718945e+00 -8.886564412563757731e-01 -2.026834193101468173e+00 9.810990049883697717e-01 1.299212922027308093e+00 1.692813128294385017e+00 4.802068364515296728e-01
1.876997568836194397e+00 1.541329998199055806e+00 9.430541085158301584e-01 2.152443173230564444e+00 3.060116153222516289e-01 2.406886580487765936e+00 1.450247262770015144e+00 -5.865863274488137408e-02 -3.473053584438547503e+00 -3.846689850750426576e+00 -2.642625718488817999e-01 5.519288263130756711e+00 1.742298781065911850e-01 2.542461284946507583e+00 -1.998569602706813164e+00 1.381756976596687503e-01 3.955758168867358204e-01 8.121737853415185171e-01 -2.038528051164422372e+00 4.459053390202274425e-01 -5.783954803123575461e-01 -1.257993296929360794e+00 -1.770250376824068717e+00 4.219041410593225905e+00 4.641152176653005612e-01 2.332923349425007231e+00 1.855311132353356429e+00 2.425380913688052753e-01 -2.910837969028910455e-01 -4.193230113170463014e+00 -2.331210502558805242e+00 -9.681948529813907411e-01
-4.039969323238836729e-01 -2.269147397720254311e+00 1.828546463866746130e+00 6.848633791315386077e-01 4.910789330665828456e-01 -4.034392752531267834e-01 1.625867245741015266e+00 -8.933301551284188458e-01 -4.312812004637887886e-02 -6.714363901339451823e-01 -7.383560749811318713e-01 -6.073718608760491078e-01 3.366954165120554787e-01 2.657172722587546332e+00 1.704585384776124313e+00 2.389119211167270718e-01 1.769294867641601821e+00 5.653542890095322182e-01 -9.880879494040960553e-01 5.536035030098961363e-01 -1.141252660262797258e+00 1.112610383184790663e+00 7.351842252261099331e-01 1.852024068232559939e+00 -1.575159020674752108e+00 5.182871156768152909e-01 -1.012927003345905019e+00 -2.771205770544063474e-01 -1.126536994920573465e+00 2.114603834724600784e+00 9.990121293925240398e-01 3.211268224557889184e+00
-1.491930484263823020e+00 1.608063270119795218e+00 6.813475162481746894e-01 -3.934803964261024967e-01 -8.073947773431414121e-02 1.707183390590943484e+00 2.994335522421744056e+00 -2.195847706509360009e+00 2.937854687534246612e+00 -2.997055309123941136e+00 3.236131704312675272e-01 1.153103453323333527e+00 -1.076313262950810312e+00 -1.587338034368939721e-01 6.178326371043426635e-01 -2.369978256135611139e-01 1.650774563938703365e-01 -4.912671799286471574e-01 -1.958610451775685712e+00 -3.411798966563760471e-01 2.312067390507123454e-01 -6.018867262274836261e-01 -2.625565120118236617e+00 -4.116027481672748234e-01 -8.404893358737239861e-01 2.405323806840152123e+00 6.258571084173061294e-01 2.325649587458263889e-01 7.141124592035650309e-01 5.075840905601070929e+00 1.519155893928430423e+00 -1.656983160029160906e+00
